<?xml version="1.0"?>
<opencv_storage>
<opencv_ml_svm>
  <format>3</format>
  <svmType>C_SVC</svmType>
  <kernel>
    <type>RBF</type>
    <gamma>1.0000000000000000e-02</gamma></kernel>
  <C>10.</C>
  <term_criteria><epsilon>1.1920928955078125e-07</epsilon>
    <iterations>1000</iterations></term_criteria>
  <var_count>3</var_count>
  <class_count>2</class_count>
  <class_labels type_id="opencv-matrix">
    <rows>2</rows>
    <cols>1</cols>
    <dt>i</dt>
    <data>
      0 1</data></class_labels>
  <sv_total>45</sv_total>
  <support_vectors>
    <_>
      0. 0. 0.</_>
    <_>
      100. 217. 244.</_>
    <_>
      103. 218. 238.</_>
    <_>
      113. 208. 227.</_>
    <_>
      91. 210. 232.</_>
    <_>
      106. 217. 243.</_>
    <_>
      136. 216. 233.</_>
    <_>
      109. 111. 119.</_>
    <_>
      114. 103. 105.</_>
    <_>
      146. 126. 108.</_>
    <_>
      179. 120. 40.</_>
    <_>
      221. 182. 30.</_>
    <_>
      129. 103. 91.</_>
    <_>
      134. 130. 129.</_>
    <_>
      128. 125. 121.</_>
    <_>
      88. 84. 83.</_>
    <_>
      114. 109. 106.</_>
    <_>
      89. 82. 79.</_>
    <_>
      95. 93. 99.</_>
    <_>
      134. 132. 144.</_>
    <_>
      184. 176. 186.</_>
    <_>
      192. 176. 183.</_>
    <_>
      199. 173. 173.</_>
    <_>
      112. 100. 100.</_>
    <_>
      185. 182. 178.</_>
    <_>
      0. 0. 1.</_>
    <_>
      176. 177. 175.</_>
    <_>
      163. 164. 162.</_>
    <_>
      134. 118. 105.</_>
    <_>
      235. 211. 29.</_>
    <_>
      78. 74. 73.</_>
    <_>
      144. 140. 139.</_>
    <_>
      130. 126. 125.</_>
    <_>
      120. 115. 116.</_>
    <_>
      36. 32. 31.</_>
    <_>
      121. 117. 116.</_>
    <_>
      118. 113. 110.</_>
    <_>
      105. 100. 99.</_>
    <_>
      93. 91. 91.</_>
    <_>
      88. 80. 80.</_>
    <_>
      92. 86. 91.</_>
    <_>
      98. 97. 106.</_>
    <_>
      185. 167. 174.</_>
    <_>
      140. 130. 136.</_>
    <_>
      106. 107. 117.</_></support_vectors>
  <decision_functions>
    <_>
      <sv_count>45</sv_count>
      <rho>-6.8177329362829420e-01</rho>
      <alpha>
        1.5990580540783914e-01 1.5944482327912107e-01
        1.1086763628671679e-01 2.6457611957500482e-01
        1.7288341537105520e-01 1.2390563170302854e-01
        1.5991199175776297e-01 2.1154565969008793e-01
        3.1652239922703035e-01 2.6156150484708401e-01
        3.1821683434695530e-01 2.8970860499862267e-01
        2.5032334510087018e-01 2.5272693336570489e-02
        1.1279252438225524e-02 3.1822670811185311e-01
        1.5937447420101666e-01 7.6579617017540624e-02
        8.4740744898979842e-02 3.5469756682167175e-02
        1.3403131510687052e-01 2.0457866851236672e-01
        2.1645865842302409e-01 8.3735754191487891e-02
        3.0955362256494467e-01 1.6739804197682687e-01
        1.3005364831331731e-01 3.1436087628727946e-02
        2.8635666145192523e-01 3.1822675511402293e-01
        3.1821678918651247e-01 1.2557880541654959e-01
        1.7429763566557491e-01 1.9045915394609669e-01
        2.6357911857637462e-02 1.1449015926794541e-01
        1.9529999245393756e-01 9.2932999211457618e-02
        2.3234433139654068e-01 -7.4475633451386591e-01
        -4.6079591548384069e-01 -1.6309929813553390e+00
        -1.5688910772424369e+00 -7.7798146727966111e-01
        -1.6787062340881549e+00</alpha>
      <index>
        0 20 21 22 23 24 25 26 27 28 29 30 31 32 33 34 35 36 37 39 40 41
        42 43 12 44 7 8 9 10 11 38 13 14 15 16 17 18 19 1 2 3 4 5 6</index></_></decision_functions></opencv_ml_svm>
</opencv_storage>
