<?xml version="1.0"?>
<opencv_storage>
<opencv_ml_svm>
  <format>3</format>
  <svmType>C_SVC</svmType>
  <kernel>
    <type>RBF</type>
    <gamma>1.0000000000000000e-02</gamma></kernel>
  <C>10.</C>
  <term_criteria><epsilon>1.1920928955078125e-07</epsilon>
    <iterations>1000</iterations></term_criteria>
  <var_count>3</var_count>
  <class_count>2</class_count>
  <class_labels type_id="opencv-matrix">
    <rows>2</rows>
    <cols>1</cols>
    <dt>i</dt>
    <data>
      0 1</data></class_labels>
  <sv_total>37</sv_total>
  <support_vectors>
    <_>
      0. 0. 0.</_>
    <_>
      162. 84. 207.</_>
    <_>
      158. 80. 206.</_>
    <_>
      157. 85. 206.</_>
    <_>
      71. 72. 72.</_>
    <_>
      77. 77. 77.</_>
    <_>
      140. 140. 140.</_>
    <_>
      195. 196. 196.</_>
    <_>
      215. 216. 216.</_>
    <_>
      72. 72. 72.</_>
    <_>
      63. 39. 15.</_>
    <_>
      82. 49. 32.</_>
    <_>
      102. 61. 37.</_>
    <_>
      94. 61. 36.</_>
    <_>
      84. 84. 84.</_>
    <_>
      193. 194. 194.</_>
    <_>
      229. 230. 230.</_>
    <_>
      146. 147. 147.</_>
    <_>
      62. 47. 41.</_>
    <_>
      87. 53. 32.</_>
    <_>
      40. 16. 14.</_>
    <_>
      255. 255. 255.</_>
    <_>
      63. 63. 55.</_>
    <_>
      65. 66. 66.</_>
    <_>
      223. 223. 223.</_>
    <_>
      57. 58. 58.</_>
    <_>
      76. 52. 27.</_>
    <_>
      74. 41. 31.</_>
    <_>
      104. 73. 41.</_>
    <_>
      111. 84. 18.</_>
    <_>
      162. 72. 207.</_>
    <_>
      68. 47. 36.</_>
    <_>
      67. 34. 25.</_>
    <_>
      76. 51. 26.</_>
    <_>
      105. 64. 39.</_>
    <_>
      48. 48. 48.</_>
    <_>
      51. 51. 51.</_></support_vectors>
  <decision_functions>
    <_>
      <sv_count>37</sv_count>
      <rho>-9.1823372899708855e-01</rho>
      <alpha>
        8.1766292850324496e-02 5.2752414728243054e-02
        3.9359924756154095e-02 2.1647495680694746e-02
        6.2391845675374071e-02 1.4860830416698903e-02
        3.9712515781564532e-02 4.5048108287356441e-02
        6.4798931010041860e-02 4.3331321903989251e-02
        7.1756684182990527e-02 5.5051244519009118e-03
        6.7322533967604153e-02 8.6356016682505553e-03
        2.7087974810471288e-02 4.3322042964401106e-02
        7.0922009904022545e-02 4.3334785461638166e-02
        6.8575659211666973e-02 6.4798934434796895e-02
        5.8303958078838147e-02 5.0198862972399678e-02
        8.1764147893508665e-02 8.1766269531305391e-02
        4.5203453402654588e-02 4.7392671239753922e-02
        4.9609493235970747e-02 4.3831862226991251e-02
        1.1783102338110170e-02 3.6212243131719730e-02
        6.4312480087213422e-02 8.1701550495881528e-02
        1.0474056277218879e+00 2.2233654298156134e-02
        -8.9065188097100778e-01 -1.6626089755014513e+00
        -1.0538955233011682e-01</alpha>
      <index>
        0 32 33 34 35 36 4 5 6 7 8 9 10 11 12 13 14 15 16 17 18 19 20 21
        22 23 24 25 26 27 28 29 30 31 1 2 3</index></_></decision_functions></opencv_ml_svm>
</opencv_storage>
