<?xml version="1.0"?>
<opencv_storage>
<opencv_ml_svm>
  <format>3</format>
  <svmType>C_SVC</svmType>
  <kernel>
    <type>RBF</type>
    <gamma>1.0000000000000000e-02</gamma></kernel>
  <C>10.</C>
  <term_criteria><epsilon>1.1920928955078125e-07</epsilon>
    <iterations>1000</iterations></term_criteria>
  <var_count>3</var_count>
  <class_count>2</class_count>
  <class_labels type_id="opencv-matrix">
    <rows>2</rows>
    <cols>1</cols>
    <dt>i</dt>
    <data>
      0 1</data></class_labels>
  <sv_total>19</sv_total>
  <support_vectors>
    <_>
      0. 0. 0.</_>
    <_>
      127. 228. 251.</_>
    <_>
      123. 228. 249.</_>
    <_>
      128. 225. 251.</_>
    <_>
      120. 220. 241.</_>
    <_>
      237. 236. 233.</_>
    <_>
      225. 219. 217.</_>
    <_>
      231. 226. 223.</_>
    <_>
      235. 228. 228.</_>
    <_>
      236. 229. 226.</_>
    <_>
      100. 206. 235.</_>
    <_>
      85. 74. 70.</_>
    <_>
      190. 185. 183.</_>
    <_>
      195. 191. 188.</_>
    <_>
      89. 73. 72.</_>
    <_>
      195. 189. 189.</_>
    <_>
      199. 194. 193.</_>
    <_>
      226. 223. 219.</_>
    <_>
      242. 238. 237.</_></support_vectors>
  <decision_functions>
    <_>
      <sv_count>19</sv_count>
      <rho>-6.2186404153691355e-01</rho>
      <alpha>
        3.7813593623603897e-01 3.3003731923164892e-01
        1.2066276543466532e-01 1.3788267332703635e-01
        8.9772232339864949e-02 3.8059820747224860e-01
        2.0884761700343912e-01 3.3924017389619132e-01
        1.4362504750687843e-02 2.0884732117419674e-01
        1.8303101704607527e-02 3.3437614487858641e-01
        8.9785887892059477e-02 1.1199759263942144e-03
        2.9791415838940349e-01 -5.9858369861087724e-01
        -6.3358534439392655e-01 -1.3664349016279769e+00
        -3.5128207502428860e-01</alpha>
      <index>
        0 6 7 9 8 10 11 12 13 14 15 16 5 17 18 1 3 4 2</index></_></decision_functions></opencv_ml_svm>
</opencv_storage>
