<?xml version="1.0"?>
<opencv_storage>
<opencv_ml_svm>
  <format>3</format>
  <svmType>C_SVC</svmType>
  <kernel>
    <type>RBF</type>
    <gamma>1.0000000000000000e-02</gamma></kernel>
  <C>10.</C>
  <term_criteria><epsilon>1.1920928955078125e-07</epsilon>
    <iterations>1000</iterations></term_criteria>
  <var_count>3</var_count>
  <class_count>2</class_count>
  <class_labels type_id="opencv-matrix">
    <rows>2</rows>
    <cols>1</cols>
    <dt>i</dt>
    <data>
      0 1</data></class_labels>
  <sv_total>19</sv_total>
  <support_vectors>
    <_>
      0. 0. 0.</_>
    <_>
      254. 254. 254.</_>
    <_>
      227. 227. 227.</_>
    <_>
      245. 245. 245.</_>
    <_>
      225. 225. 225.</_>
    <_>
      247. 247. 247.</_>
    <_>
      218. 218. 218.</_>
    <_>
      240. 240. 240.</_>
    <_>
      241. 241. 241.</_>
    <_>
      234. 234. 234.</_>
    <_>
      13. 64. 13.</_>
    <_>
      23. 75. 23.</_>
    <_>
      14. 72. 14.</_>
    <_>
      17. 78. 17.</_>
    <_>
      19. 87. 19.</_>
    <_>
      24. 95. 24.</_>
    <_>
      26. 105. 26.</_>
    <_>
      23. 92. 23.</_>
    <_>
      177. 166. 165.</_></support_vectors>
  <decision_functions>
    <_>
      <sv_count>19</sv_count>
      <rho>-1.4128353655094930e-01</rho>
      <alpha>
        8.5871852599071730e-01 1.2335589412921306e-01
        4.8150222170641788e-01 2.9873858755699839e-01
        7.2503232306952992e-01 1.6270054050663862e-01
        8.5871378458126291e-01 6.6560283500707673e-01
        6.2575129232839832e-01 2.9806055189920028e-01
        -9.9088894631368318e-01 -5.9713134924644862e-01
        -1.6967585295025869e-01 -3.0951826901839580e-01
        -5.7720651406978174e-01 -1.0171904146140165e+00
        -4.1833277532292762e-01 -2.4953191080238540e-01
        -7.6870052443755532e-01</alpha>
      <index>
        0 13 14 15 16 17 18 10 11 12 1 2 3 4 5 6 7 8 9</index></_></decision_functions></opencv_ml_svm>
</opencv_storage>
